[app/sources/349608055.Dockerfile]
digraph {
  "sha256:5e691c7ba4998fa4b60d1218bbc4ed9845bfa527d7d91b0c48922bbea45ce425" [label="docker-image://docker.io/library/ubuntu:18.04" shape="ellipse"];
  "sha256:675f6e50797f4dddbc0d249207509e8fc3c2cd31cdbbd64952b2ea314aaeee3c" [label="/bin/sh -c apt-get update -y   && apt-get upgrade -y   && apt-get install -y --no-install-recommends         ca-certificates         g++         make         cmake         libboost-date-time-dev         libboost-filesystem-dev         libboost-graph-dev         libboost-program-options-dev         libboost-system-dev         libboost-thread-dev         libcurl4-gnutls-dev         curl   && rm -rf /var/lib/apt/lists/*" shape="box"];
  "sha256:a6024b2dc4b1ae036738fc115d4483f2625a352a9fcce799b1d75b40361a3f62" [label="/bin/sh -c cd \\tmp   && curl -o shark.tar.gz https://codeload.github.com/Shark-ML/Shark/tar.gz/v3.1.4   && tar xzf shark.tar.gz   && cd Shark-3.1.4  && mkdir build   && cd build   && cmake  -DBUILD_EXAMPLES:BOOL=OFF             -DBUILD_TESTING:BOOL=OFF             -DENABLE_HDF5:BOOL=OFF             -DBUILD_SHARED_LIBS=ON             -DENABLE_CBLAS:BOOL=OFF             -DENABLE_OPENMP:BOOL=OFF             ../.   && make install" shape="box"];
  "sha256:41fd865ca4a44d7e97fce1138338c18bdda4e93fa1ecec90ec2fb4dce18f14b3" [label="/bin/sh -c echo \"Europe/Paris\" > /etc/timezone" shape="box"];
  "sha256:373527a0719668f92c546ca63b949a41a5f82147f4ab77cf016071bd6050e384" [label="/bin/sh -c apt-get update -y  && apt-get upgrade -y  && apt-get install -y --no-install-recommends         ca-certificates         curl         make         cmake         ninja-build         g++         gcc         clang         clang-tidy         clang-format         ccache         git         libtool         swig         xvfb  && rm -rf /var/lib/apt/lists/*" shape="box"];
  "sha256:ef5a874950cf9270e1d955489e9fd37664e2952f7ddb08ebf142029e25821e45" [label="/bin/sh -c apt-get update -y  && apt-get upgrade -y  && apt-get install -y --no-install-recommends         freeglut3-dev         libboost-date-time-dev         libboost-filesystem-dev         libboost-graph-dev         libboost-program-options-dev         libboost-system-dev         libboost-thread-dev         libcurl4-gnutls-dev         libexpat1-dev         libfftw3-dev         libgdal-dev         libgeotiff-dev         libglew-dev         libglfw3-dev         libgsl-dev         libinsighttoolkit4-dev         libkml-dev         libmuparser-dev         libmuparserx-dev         libopencv-core-dev         libopencv-ml-dev         libopenmpi-dev         libopenthreads-dev         libossim-dev         libpng-dev         libqt5opengl5-dev         libqwt-qt5-dev         libsvm-dev         libtinyxml-dev         qtbase5-dev         qttools5-dev         default-jdk         python-dev         python-numpy         python-gdal         python3-dev         python3-numpy         python3-gdal  && rm -rf /var/lib/apt/lists/*" shape="box"];
  "sha256:7fe873170d7a1a3e7819cc2847913c90b7c3db0a9ffb79d4732f44924f9f89c1" [label="copy{src=/usr/local/include/shark/*, dest=/usr/include/shark/}" shape="note"];
  "sha256:7348714cf7665b8c79dc5e543f10935af24018c9324603579c2b4ba57e47c8a1" [label="copy{src=/usr/local/lib/libshark*, dest=/usr/lib/}" shape="note"];
  "sha256:65138a19ebe63eddb29e4311058ceaf78f2bf028979131dbf27cf4ba96b7759f" [label="copy{src=/usr/local/bin/SharkVersion, dest=/usr/bin/}" shape="note"];
  "sha256:3f7c274be1048d1ea7f4c964ace15754b6a42d273cba478a95e8cb6026c0e144" [label="copy{src=/usr/local/lib/cmake, dest=/usr/lib/cmake/}" shape="note"];
  "sha256:e71e5b01e2a7c7d48d972950336d2e600e4a42da5ca0f700472bc27e0c951387" [label="sha256:e71e5b01e2a7c7d48d972950336d2e600e4a42da5ca0f700472bc27e0c951387" shape="plaintext"];
  "sha256:5e691c7ba4998fa4b60d1218bbc4ed9845bfa527d7d91b0c48922bbea45ce425" -> "sha256:675f6e50797f4dddbc0d249207509e8fc3c2cd31cdbbd64952b2ea314aaeee3c" [label=""];
  "sha256:675f6e50797f4dddbc0d249207509e8fc3c2cd31cdbbd64952b2ea314aaeee3c" -> "sha256:a6024b2dc4b1ae036738fc115d4483f2625a352a9fcce799b1d75b40361a3f62" [label=""];
  "sha256:5e691c7ba4998fa4b60d1218bbc4ed9845bfa527d7d91b0c48922bbea45ce425" -> "sha256:41fd865ca4a44d7e97fce1138338c18bdda4e93fa1ecec90ec2fb4dce18f14b3" [label=""];
  "sha256:41fd865ca4a44d7e97fce1138338c18bdda4e93fa1ecec90ec2fb4dce18f14b3" -> "sha256:373527a0719668f92c546ca63b949a41a5f82147f4ab77cf016071bd6050e384" [label=""];
  "sha256:373527a0719668f92c546ca63b949a41a5f82147f4ab77cf016071bd6050e384" -> "sha256:ef5a874950cf9270e1d955489e9fd37664e2952f7ddb08ebf142029e25821e45" [label=""];
  "sha256:ef5a874950cf9270e1d955489e9fd37664e2952f7ddb08ebf142029e25821e45" -> "sha256:7fe873170d7a1a3e7819cc2847913c90b7c3db0a9ffb79d4732f44924f9f89c1" [label=""];
  "sha256:a6024b2dc4b1ae036738fc115d4483f2625a352a9fcce799b1d75b40361a3f62" -> "sha256:7fe873170d7a1a3e7819cc2847913c90b7c3db0a9ffb79d4732f44924f9f89c1" [label=""];
  "sha256:7fe873170d7a1a3e7819cc2847913c90b7c3db0a9ffb79d4732f44924f9f89c1" -> "sha256:7348714cf7665b8c79dc5e543f10935af24018c9324603579c2b4ba57e47c8a1" [label=""];
  "sha256:a6024b2dc4b1ae036738fc115d4483f2625a352a9fcce799b1d75b40361a3f62" -> "sha256:7348714cf7665b8c79dc5e543f10935af24018c9324603579c2b4ba57e47c8a1" [label=""];
  "sha256:7348714cf7665b8c79dc5e543f10935af24018c9324603579c2b4ba57e47c8a1" -> "sha256:65138a19ebe63eddb29e4311058ceaf78f2bf028979131dbf27cf4ba96b7759f" [label=""];
  "sha256:a6024b2dc4b1ae036738fc115d4483f2625a352a9fcce799b1d75b40361a3f62" -> "sha256:65138a19ebe63eddb29e4311058ceaf78f2bf028979131dbf27cf4ba96b7759f" [label=""];
  "sha256:65138a19ebe63eddb29e4311058ceaf78f2bf028979131dbf27cf4ba96b7759f" -> "sha256:3f7c274be1048d1ea7f4c964ace15754b6a42d273cba478a95e8cb6026c0e144" [label=""];
  "sha256:a6024b2dc4b1ae036738fc115d4483f2625a352a9fcce799b1d75b40361a3f62" -> "sha256:3f7c274be1048d1ea7f4c964ace15754b6a42d273cba478a95e8cb6026c0e144" [label=""];
  "sha256:3f7c274be1048d1ea7f4c964ace15754b6a42d273cba478a95e8cb6026c0e144" -> "sha256:e71e5b01e2a7c7d48d972950336d2e600e4a42da5ca0f700472bc27e0c951387" [label=""];
}

